digraph Tree {
node [shape=box] ;
0 [label="Sex_revised <= 0.5\ngini = 0.473\nsamples = 891\nvalue = [549, 342]\nclass = Dead"] ;
1 [label="Cabin_Tp <= 0.5\ngini = 0.306\nsamples = 577\nvalue = [468, 109]\nclass = Dead"] ;
0 -> 1 [labeldistance=2.5, labelangle=45, headlabel="True"] ;
2 [label="Age <= 17.5\ngini = 0.487\nsamples = 107\nvalue = [62, 45]\nclass = Dead"] ;
1 -> 2 ;
3 [label="gini = 0.0\nsamples = 8\nvalue = [0, 8]\nclass = Survived"] ;
2 -> 3 ;
4 [label="Fare <= 7.9\ngini = 0.468\nsamples = 99\nvalue = [62, 37]\nclass = Dead"] ;
2 -> 4 ;
5 [label="gini = 0.0\nsamples = 8\nvalue = [8, 0]\nclass = Dead"] ;
4 -> 5 ;
6 [label="Age <= 43.0\ngini = 0.483\nsamples = 91\nvalue = [54, 37]\nclass = Dead"] ;
4 -> 6 ;
7 [label="gini = 0.499\nsamples = 52\nvalue = [25, 27]\nclass = Survived"] ;
6 -> 7 ;
8 [label="gini = 0.381\nsamples = 39\nvalue = [29, 10]\nclass = Dead"] ;
6 -> 8 ;
9 [label="Age <= 3.5\ngini = 0.235\nsamples = 470\nvalue = [406, 64]\nclass = Dead"] ;
1 -> 9 ;
10 [label="Single <= 3.5\ngini = 0.459\nsamples = 14\nvalue = [5, 9]\nclass = Survived"] ;
9 -> 10 ;
11 [label="gini = 0.0\nsamples = 8\nvalue = [0, 8]\nclass = Survived"] ;
10 -> 11 ;
12 [label="Age <= 2.5\ngini = 0.278\nsamples = 6\nvalue = [5, 1]\nclass = Dead"] ;
10 -> 12 ;
13 [label="gini = 0.0\nsamples = 5\nvalue = [5, 0]\nclass = Dead"] ;
12 -> 13 ;
14 [label="gini = 0.0\nsamples = 1\nvalue = [0, 1]\nclass = Survived"] ;
12 -> 14 ;
15 [label="Age <= 13.0\ngini = 0.212\nsamples = 456\nvalue = [401, 55]\nclass = Dead"] ;
9 -> 15 ;
16 [label="Single <= 3.5\ngini = 0.43\nsamples = 16\nvalue = [11, 5]\nclass = Dead"] ;
15 -> 16 ;
17 [label="gini = 0.278\nsamples = 6\nvalue = [1, 5]\nclass = Survived"] ;
16 -> 17 ;
18 [label="gini = 0.0\nsamples = 10\nvalue = [10, 0]\nclass = Dead"] ;
16 -> 18 ;
19 [label="Fare <= 54.248\ngini = 0.201\nsamples = 440\nvalue = [390, 50]\nclass = Dead"] ;
15 -> 19 ;
20 [label="gini = 0.188\nsamples = 419\nvalue = [375, 44]\nclass = Dead"] ;
19 -> 20 ;
21 [label="gini = 0.408\nsamples = 21\nvalue = [15, 6]\nclass = Dead"] ;
19 -> 21 ;
22 [label="Pclass <= 2.5\ngini = 0.383\nsamples = 314\nvalue = [81, 233]\nclass = Survived"] ;
0 -> 22 [labeldistance=2.5, labelangle=-45, headlabel="False"] ;
23 [label="Age <= 2.5\ngini = 0.1\nsamples = 170\nvalue = [9, 161]\nclass = Survived"] ;
22 -> 23 ;
24 [label="Fare <= 88.775\ngini = 0.5\nsamples = 2\nvalue = [1, 1]\nclass = Dead"] ;
23 -> 24 ;
25 [label="gini = 0.0\nsamples = 1\nvalue = [0, 1]\nclass = Survived"] ;
24 -> 25 ;
26 [label="gini = 0.0\nsamples = 1\nvalue = [1, 0]\nclass = Dead"] ;
24 -> 26 ;
27 [label="Fare <= 28.856\ngini = 0.091\nsamples = 168\nvalue = [8, 160]\nclass = Survived"] ;
23 -> 27 ;
28 [label="Fare <= 28.231\ngini = 0.182\nsamples = 69\nvalue = [7, 62]\nclass = Survived"] ;
27 -> 28 ;
29 [label="gini = 0.161\nsamples = 68\nvalue = [6, 62]\nclass = Survived"] ;
28 -> 29 ;
30 [label="gini = 0.0\nsamples = 1\nvalue = [1, 0]\nclass = Dead"] ;
28 -> 30 ;
31 [label="Single <= 2.5\ngini = 0.02\nsamples = 99\nvalue = [1, 98]\nclass = Survived"] ;
27 -> 31 ;
32 [label="gini = 0.0\nsamples = 87\nvalue = [0, 87]\nclass = Survived"] ;
31 -> 32 ;
33 [label="gini = 0.153\nsamples = 12\nvalue = [1, 11]\nclass = Survived"] ;
31 -> 33 ;
34 [label="Fare <= 23.35\ngini = 0.5\nsamples = 144\nvalue = [72, 72]\nclass = Dead"] ;
22 -> 34 ;
35 [label="Age <= 36.5\ngini = 0.484\nsamples = 117\nvalue = [48, 69]\nclass = Survived"] ;
34 -> 35 ;
36 [label="Embarked_S <= 0.5\ngini = 0.472\nsamples = 110\nvalue = [42, 68]\nclass = Survived"] ;
35 -> 36 ;
37 [label="gini = 0.406\nsamples = 53\nvalue = [15, 38]\nclass = Survived"] ;
36 -> 37 ;
38 [label="gini = 0.499\nsamples = 57\nvalue = [27, 30]\nclass = Survived"] ;
36 -> 38 ;
39 [label="Age <= 55.0\ngini = 0.245\nsamples = 7\nvalue = [6, 1]\nclass = Dead"] ;
35 -> 39 ;
40 [label="gini = 0.0\nsamples = 6\nvalue = [6, 0]\nclass = Dead"] ;
39 -> 40 ;
41 [label="gini = 0.0\nsamples = 1\nvalue = [0, 1]\nclass = Survived"] ;
39 -> 41 ;
42 [label="Single <= 1.5\ngini = 0.198\nsamples = 27\nvalue = [24, 3]\nclass = Dead"] ;
34 -> 42 ;
43 [label="gini = 0.0\nsamples = 1\nvalue = [0, 1]\nclass = Survived"] ;
42 -> 43 ;
44 [label="Age <= 5.5\ngini = 0.142\nsamples = 26\nvalue = [24, 2]\nclass = Dead"] ;
42 -> 44 ;
45 [label="gini = 0.444\nsamples = 3\nvalue = [2, 1]\nclass = Dead"] ;
44 -> 45 ;
46 [label="gini = 0.083\nsamples = 23\nvalue = [22, 1]\nclass = Dead"] ;
44 -> 46 ;
}